[
  {
    "inputs": [
      0,
      0,
      0,
      0,
      0,
      0,
      0.12325131200235717
    ],
    "outputs": [
      1,
      1,
      0,
      0,
      1,
      0,
      0,
      0,
      0
    ],
    "biases": [
      -0.08981947187255766,
      -0.26909783416492816,
      0.02069795677854103,
      0.06953023355498542,
      -0.04003600958557281,
      0.17940772713430533,
      0.1934170463563114,
      0.036927107485861616,
      0.3843535400520572
    ],
    "weights": [
      [
        0.25375811772576906,
        0.006282917245936643,
        0.046944320523120364,
        0.045260902578685855,
        -0.09285569940529803,
        -0.13301419175994939,
        -0.2489701490004978,
        0.051123736624441765,
        -0.13451173691984675
      ],
      [
        -0.08561328825741826,
        0.16180049202903304,
        -0.20755405715497727,
        0.19051754103311067,
        -0.18616925098471632,
        0.13187129314447155,
        0.0783025719897754,
        -0.1073054929722927,
        0.1683554146123763
      ],
      [
        0.01747540123232136,
        -0.04425264030768966,
        -0.17599286403879574,
        0.3393917028388382,
        -0.0894624699189152,
        0.2525311957365347,
        0.39184393872412016,
        0.09955679694791522,
        -0.3821705384334026
      ],
      [
        -0.18206217273940084,
        0.05523323449986059,
        0.06909287927500711,
        -0.0630156439368028,
        -0.20230599886783782,
        -0.06712872678311958,
        0.05136473100472819,
        0.18639853092727934,
        -0.013945689977398337
      ],
      [
        -0.10516108493938492,
        -0.24997729500787508,
        0.0762136203949192,
        -0.12090625063755239,
        -0.14912846483727635,
        0.14697081961075606,
        -0.03970733830585171,
        0.23881120225668082,
        0.3575525835612568
      ],
      [
        -0.15330331780052672,
        0.11405015830234358,
        -0.0743234373920336,
        0.031929608683585194,
        0.02747144209062795,
        0.15310793279948803,
        -0.1451188366814494,
        0.1484475608898576,
        -0.08664116202440854
      ],
      [
        0.09264559229943438,
        0.018934856841019972,
        0.1150262777638505,
        -0.23188877294874638,
        -0.045538866349271866,
        -0.10422497093699323,
        -0.11189594130981247,
        -0.10104900944749184,
        0.0333464633943703
      ]
    ]
  },
  {
    "inputs": [
      1,
      1,
      0,
      0,
      1,
      0,
      0,
      0,
      0
    ],
    "outputs": [
      1,
      0,
      1,
      1
    ],
    "biases": [
      -0.14738998239559756,
      -0.030325369893758596,
      -0.1602332154875929,
      -0.3046369688261961
    ],
    "weights": [
      [
        -0.03487635805231108,
        0.049158821125176784,
        0.19064035550376526,
        -0.09176066655416798
      ],
      [
        0.061802858474692704,
        -0.1533874499671631,
        -0.15873362751618905,
        -0.03364513921618145
      ],
      [
        0.09803535733073253,
        -0.17010205326141792,
        0.06896152315772587,
        -0.13672346135593239
      ],
      [
        0.11157411086331145,
        -0.1753251666670441,
        -0.3409368439637467,
        -0.11945842248981081
      ],
      [
        -0.02852289283811429,
        -0.007655408335717157,
        0.18930398574213642,
        0.26767503612330157
      ],
      [
        0.11367353255097729,
        -0.18026725274562402,
        0.30476733528766464,
        0.19433435328958085
      ],
      [
        -0.06605667306409459,
        -0.18907667790569524,
        -0.1732374734579938,
        0.23253397317057595
      ],
      [
        0.27659856506641545,
        0.04265806318582888,
        -0.13885289219897695,
        -0.1370737395291506
      ],
      [
        0.11594000684299959,
        -0.03794488307378365,
        -0.19665349163539037,
        0.1066191153177301
      ]
    ]
  }
]